net
{
    node_size = (80 40);
    HR_realname_NAP1L1 = "NAP1L1";
    HR_realname_ATP2B4 = "ATP2B4";
    HR_realname_PCCB = "PCCB";
    HR_realname_MDS1 = "MDS1";
    HR_realname_MDK = "MDK";
    HR_realname_AML = "AML";
    HR_DBN_Num_Slices = "5";
    HR_Desc = "";
    HR_OOBN_CheckConsistency = "1";
    HR_OOBN_FitExpand = "1";
    HR_Zoom_ZoomFactor = "100";
    HR_Groups_GroupColors = "";
    HR_Groups_GroupNames = "";
    HR_Groups_UserGroupsNo = "0";
    HR_Utility_Link = "63";
    HR_Probabilistic_Link = "63";
    HR_Functional_Link = "63";
    HR_Binding_Link = "63";
    HR_Information_Arc = "63";
    HR_Color_Interface = "21";
    HR_Color_Instance = "0";
    HR_Color_DiscreteFunction = "5";
    HR_Color_Function = "4";
    HR_Color_Utility = "36";
    HR_Color_Decision = "17";
    HR_Color_ContinuousChance = "48";
    HR_Color_DiscreteChance = "16";
    HR_Monitor_InitSD = "2";
    HR_Monitor_Utility_Arrange = "0";
    HR_Monitor_Mean_Variance = "1";
    HR_Monitor_Chance_Utility = "1";
    HR_Monitor_InitStates = "5";
    HR_Monitor_OpenGraph = "0";
    HR_Monitor_GraphPrecision = "100";
    HR_Monitor_AutoUpdGraph = "0";
    HR_Compile_MaxMinimalSeparators = "100000";
    HR_Compile_ApproxEpsilon = "1.0E-5";
    HR_Compile_Approximate = "0";
    HR_Compile_SaveToMemory = "0";
    HR_Compile_Compress = "0";
    HR_Compile_TriangMethod = "0";
    HR_Propagate_AutoNormal = "1";
    HR_Propagate_AutoSum = "1";
    HR_Propagate_Auto = "1";
    HR_Font_Italic = "0";
    HR_Font_Weight = "400";
    HR_Font_Size = "-12";
    HR_Font_Name = "javax.swing.plaf.FontUIResource[family=Tahoma,name=Tahoma,style=plain,size=11]";
    HR_Grid_GridShow = "0";
    HR_Grid_GridSnap = "0";
    HR_Grid_Y = "40";
    HR_Grid_X = "40";
}

node AML
{
    label = "";
    position = (249 84);
    states = ("yes" "no");
    HR_Group = "0";
    HR_Desc = "";
    HR_State_1 = "";
    HR_State_0 = "";
    HR_LinkGroup = "[MDS1:0][PCCB:0][MDK:0][NAP1L1:0][ATP2B4:0]";
    HR_LinkMode = "[C4:0][C3:0][C5:0][C1:0][C2:0]";
}

node MDK
{
    label = "";
    position = (365 141);
    states = ("yes" "no");
    HR_Group = "0";
    HR_Desc = "";
    HR_State_1 = "";
    HR_State_0 = "";
}

node MDS1
{
    label = "";
    position = (147 152);
    states = ("yes" "no");
    HR_Group = "0";
    HR_Desc = "";
    HR_State_1 = "";
    HR_State_0 = "";
}

node PCCB
{
    label = "";
    position = (245 222);
    states = ("yes" "no");
    HR_Group = "0";
    HR_Desc = "";
    HR_State_1 = "";
    HR_State_0 = "";
}

node ATP2B4
{
    label = "";
    position = (357 283);
    states = ("yes" "no");
    HR_Group = "0";
    HR_Desc = "";
    HR_State_1 = "";
    HR_State_0 = "";
}

node NAP1L1
{
    label = "";
    position = (147 284);
    states = ("yes" "no");
    HR_Group = "0";
    HR_Desc = "";
    HR_State_1 = "";
    HR_State_0 = "";
}

potential (AML)
{
    data = ( 0.372881 0.627119 );
    experience = 59;
}

potential (MDK | AML)
{
    data
     = (( 0.0227273 0.977273 )	%  AML=yes
	( 0.283784 0.716216 ));	%  AML=no
    experience
     = ( 22	%  AML=yes
	 37 );	%  AML=no
}

potential (MDS1 | AML)
{
    data
     = (( 0.977273 0.0227273 )	%  AML=yes
	( 0.716216 0.283784 ));	%  AML=no
    experience
     = ( 22	%  AML=yes
	 37 );	%  AML=no
}

potential (PCCB | AML)
{
    data
     = (( 0.931818 0.0681818 )	%  AML=yes
	( 0.743243 0.256757 ));	%  AML=no
    experience
     = ( 22	%  AML=yes
	 37 );	%  AML=no
}

potential (ATP2B4 | AML)
{
    data
     = (( 0.0681818 0.931818 )	%  AML=yes
	( 0.310811 0.689189 ));	%  AML=no
    experience
     = ( 22	%  AML=yes
	 37 );	%  AML=no
}

potential (NAP1L1 | AML)
{
    data
     = (( 0.0227273 0.977273 )	%  AML=yes
	( 0.310811 0.689189 ));	%  AML=no
    experience
     = ( 22	%  AML=yes
	 37 );	%  AML=no
}
